{
  "model_name": "CNN",
  "input_kind": "tabular",
  "feature_columns": [
    "duration",
    "total_packets",
    "total_bytes",
    "packet_rate",
    "byte_rate",
    "mean_packet_size",
    "protocol_code",
    "syn_count",
    "fin_count",
    "device_type_code",
    "inter_arrival",
    "inter_arrival_roll_std"
  ],
  "scaler_mean": [
    0.8647675681840656,
    1761.7355271685726,
    364988.3453507436,
    932.0700233864715,
    197182.99573043582,
    117.0959438271833,
    0.29457186064825464,
    279.31979957210456,
    1.0646163924372618,
    0.5618183465395524,
    12.740793630496762,
    3.512467389973308
  ],
  "scaler_scale": [
    2.180594352981066,
    3947.7485827079768,
    1091537.468666576,
    1902.7148706822832,
    566436.9913851954,
    111.78539672530927,
    0.5934027952616728,
    898.6618701351221,
    1.860057126050534,
    0.9852277724352613,
    42.11852967114105,
    14.110447065540715
  ],
  "layers": [
    {
      "type": "Reshape",
      "params": {},
      "target_shape": [
        12,
        1
      ]
    },
    {
      "type": "Conv1D",
      "params": {
        "W": [
          [
            [
              0.048575918013406466,
              -0.38397492971761127,
              0.45526453720474513,
              -0.3061444879700157,
              0.12985291734552468,
              -0.3872771956340586,
              0.5958642902254929,
              0.19416520681668473,
              0.00688082182845132,
              -0.6566677045791183,
              0.6391749312303756,
              -0.4664083785631498,
              0.5155109716362426,
              0.22480205377507417,
              -0.03790573225811031,
              -0.6190300162501131
            ]
          ],
          [
            [
              -0.5756634801645948,
              -0.42280030660787293,
              0.1730847002684518,
              0.458264954016503,
              0.5529387334924417,
              -0.114416327514422,
              0.28680553602804176,
              -0.11058144851806982,
              -0.45282661481983766,
              0.04242327644769657,
              -0.07213230770175652,
              0.3918854879312702,
              0.5202970981158966,
              -0.36373893040213096,
              -0.643880691122461,
              0.19515269060309196
            ]
          ],
          [
            [
              0.3078628857972396,
              0.27302678659975654,
              -0.049507424542203665,
              0.5262198423686375,
              -0.1534106807204814,
              -0.13165776280999075,
              -0.05692296878981786,
              -0.4260552773572748,
              0.6671557176751148,
              -0.21497338683252276,
              0.2816866327013873,
              -0.4851050468276547,
              0.47411845140410713,
              0.564291619209245,
              -0.036627235197218354,
              -0.45227937060427986
            ]
          ]
        ],
        "b": [
          0.017512791057873674,
          0.008995865464095578,
          0.039122077184083656,
          -0.0737680517170997,
          0.004044025307252069,
          0.05793425871722185,
          0.3445498040270895,
          0.0641045563442389,
          -0.015943710818087438,
          0.06627737008713949,
          0.3949453967949876,
          0.021747638837323946,
          0.08546084307272714,
          0.24667448565285532,
          0.0016333383261266851,
          0.02255650275707554
        ]
      },
      "kernel_size": 3
    },
    {
      "type": "ReLU",
      "params": {}
    },
    {
      "type": "Conv1D",
      "params": {
        "W": [
          [
            [
              -0.14207350965461324,
              -0.08079289534743075,
              0.281210464060218,
              -0.025151150252134033,
              0.23596801534033554,
              0.03466554402535102,
              0.03284922746154812,
              0.2215273288599611,
              0.0396082196320519,
              -0.06408471532654336,
              0.3431101494723854,
              -0.057679711017201735,
              0.22690835003483467,
              -0.07618136956987927,
              0.3117294637927111,
              0.2720658564384966
            ],
            [
              0.139375151771737,
              0.010990584130832481,
              0.15177973164082256,
              0.2361225137631361,
              -0.139605928760532,
              0.377144695945465,
              0.2103963079040489,
              -0.07968696106577705,
              -0.18907101267058474,
              -0.016823092320090664,
              0.4814683263057588,
              0.08685291530839452,
              -0.042303223435253244,
              0.04549341089521947,
              -0.5146942178459951,
              0.36593553431272063
            ],
            [
              -0.09890683186347876,
              -0.0427675821318826,
              -0.3774881902601575,
              -0.27904821474578373,
              0.05380281026822182,
              -0.18601954845769889,
              -0.14411922947679875,
              -0.23255854954671684,
              0.2707054394630712,
              0.09829806706684832,
              -0.009169917149044167,
              0.23082479219769983,
              -0.02792835735112209,
              0.08315310219290666,
              -0.006265068917333649,
              0.17333946586289004
            ],
            [
              -0.06750939909737079,
              0.19353742131491927,
              -0.17830820172064,
              0.17529011485764365,
              0.2966144297726617,
              -0.34436221936268097,
              -0.03622747010683096,
              0.10946015880548093,
              -0.2597982541597331,
              0.020463918140325024,
              -0.32645229840205653,
              0.06243264612792603,
              -0.2723801549725431,
              -0.16216282430719645,
              0.18807478974572286,
              -0.2576327659372913
            ],
            [
              0.23925935306683035,
              0.06358184979084788,
              -0.25262790327158,
              0.14057442873493223,
              -0.18477222924025938,
              0.14512610264292933,
              -0.1949004374479351,
              0.26211077912074815,
              0.24616724204699547,
              -0.02384458603134667,
              0.17001152254469618,
              0.27244696828639786,
              -0.27399599013492304,
              0.23634266755943062,
              -0.11099668678654492,
              -0.18354975532111478
            ],
            [
              -0.16258830268594585,
              0.10590688549208326,
              0.11658920221879307,
              -0.3423733317080704,
              0.19547980253795716,
              0.421667812569733,
              -0.12396726599643035,
              0.1547215930855473,
              -0.37640378157344506,
              0.2922507585009626,
              0.11192989126852554,
              0.1750590330739601,
              0.25724522289965535,
              0.09540642728545276,
              -0.46106934973743996,
              0.3056476219544997
            ],
            [
              0.20903836284898367,
              0.3671343467196115,
              -0.7623899375588157,
              0.26994777799501013,
              0.0032100244190464548,
              -0.4279464111520809,
              -0.2241545907866723,
              -0.12605345516337793,
              0.37920245259395874,
              -0.1684322800777615,
              0.18613131982164224,
              -0.4446764129281171,
              -0.18358616050073606,
              -0.2203954903859106,
              0.026055578692982178,
              0.12878424435462207
            ],
            [
              -0.25746278695656755,
              0.002858427428443163,
              -0.18165759638865395,
              0.06901879767780338,
              -0.081037560515547,
              0.023428572306109643,
              -0.05135509360034572,
              0.21090865334982242,
              0.4315116416138094,
              0.22193569928455137,
              0.15041238954074942,
              0.12344394003842017,
              0.2896894594647759,
              0.14878566293570722,
              0.30740200669234163,
              0.2375341196056542
            ],
            [
              -0.1059264143343709,
              -0.15857507288850894,
              -0.2706744114661316,
              -0.22564140035967434,
              0.07014411031615365,
              -0.07900577183130827,
              -0.23766240278020026,
              -0.2054411411629085,
              -0.05765608719456967,
              0.1727109063649363,
              -0.16342731760321083,
              0.26218501011434325,
              -0.37151313358155014,
              0.24857898570312267,
              0.04348764273653549,
              0.35066388986756475
            ],
            [
              -0.26687786924615653,
              -0.41608481298341365,
              0.33597025725152846,
              -0.1645093826708357,
              0.36928029133073514,
              0.007351150756078491,
              -0.38463599313080293,
              0.23829101397500646,
              0.14014188436844696,
              0.47975668069825783,
              0.20628015211809753,
              0.14693207182078064,
              -0.18987980495613205,
              -0.2150951108419673,
              -0.5369273137962247,
              0.18546771678387933
            ],
            [
              -0.18808811664874486,
              0.21848692858294563,
              -0.3468396610730048,
              0.2744207627569274,
              -0.13923207186202857,
              -0.5252673139874807,
              0.23616850468087608,
              0.25389623874867334,
              0.29195998765444975,
              -0.15421059316491395,
              -0.29413653487433356,
              -0.06642207025134753,
              -0.2433024038084648,
              0.22095356313876627,
              0.6365536420026622,
              -0.28063128419167765
            ],
            [
              -0.01846133695083726,
              -0.4054491457226394,
              0.29681247194100674,
              -0.0777632038509847,
              0.14209573965255476,
              -0.15972589467399964,
              -0.2643353562304106,
              -0.2608874652995169,
              -0.14209475267887303,
              0.49223074644366677,
              0.07602728956000511,
              0.2358555937720775,
              0.32904091342406283,
              -0.10261362313988,
              -0.6247261936897561,
              -0.10892784814188804
            ],
            [
              0.3049270373937848,
              0.17392393431576025,
              0.1991943807548813,
              0.3061666123442339,
              0.033372251180529534,
              -0.3114549725613814,
              0.24497429585588132,
              0.21211472914653653,
              -0.14721811589401904,
              -0.12514941179057157,
              -0.10192021163903385,
              -0.16704213569467918,
              0.19090318571351353,
              -0.16966438734418382,
              -0.26607329828414544,
              0.24245881138346012
            ],
            [
              0.21232377249959267,
              -0.1302405957070823,
              -0.2634267904909781,
              0.18306276082803016,
              -0.11884387545975339,
              -0.5093795258576114,
              -0.11364887870472837,
              0.16108994332941526,
              0.01768901946552592,
              0.11981232650381779,
              -0.005881795579315614,
              -0.24193804449552245,
              -0.5804091091585322,
              0.18934963452614897,
              0.39639853883151266,
              0.04880890548768001
            ],
            [
              -0.08659490966208942,
              0.020652670569732478,
              0.021788835155881557,
              0.2759481444039327,
              0.32350255244006754,
              0.35594126803676723,
              -0.007271029551098226,
              0.3272512161937314,
              -0.23779137517415588,
              -0.13864324451372917,
              -0.016610415155573904,
              0.16840936226314382,
              0.2749537292553703,
              0.006712157890307815,
              0.28370923274181126,
              0.21058058941006222
            ],
            [
              -0.13250566827930618,
              -0.4052981934284251,
              0.22935814295776047,
              0.15765400664033327,
              0.3549753691352401,
              0.08850017518654427,
              0.1389479585631115,
              -0.2556561496067023,
              -0.1726827043599447,
              0.3741040087236229,
              -0.03487633348965081,
              0.12321125723367027,
              0.2551355809150604,
              -0.18691726345642717,
              -0.5035608940470551,
              0.3595765750721909
            ]
          ],
          [
            [
              0.2528808354820998,
              -0.2025006585295396,
              0.003295017550292948,
              0.00772600259137243,
              0.2349236170509772,
              0.22865684599826966,
              -0.05380143341730975,
              -0.2952381720035247,
              0.04421558591539983,
              -0.12549636229661038,
              0.005917541445150387,
              0.13296647176509874,
              0.1386124585577268,
              0.02364416068509413,
              -0.10504209335765498,
              -0.18022270999295395
            ],
            [
              -0.2336452697526739,
              -0.09223018917148398,
              0.2992376317281971,
              0.1479362086294443,
              -0.033298354063215574,
              -0.19268669095482432,
              0.3118696846024745,
              0.3290258370832852,
              -0.0659138247374874,
              -0.20411134508857823,
              0.24725564969125438,
              0.3224793145872844,
              0.27512476227711163,
              -0.11823116863661935,
              0.07657994805551235,
              0.22095204362995916
            ],
            [
              -0.25829425045093646,
              -0.048131153415844105,
              0.010897209250386028,
              0.10240491380894733,
              -0.2577756898597367,
              -0.21279980212874383,
              0.1794543543059515,
              -0.13934662900468547,
              0.2213357287697206,
              -0.022631788765771054,
              -0.1111587261881269,
              0.05301936307405864,
              -0.3074410369111627,
              -0.1970628151720245,
              -0.09439605785105054,
              0.240635139471793
            ],
            [
              -0.26012354677638583,
              -0.31714604757479664,
              -0.3405940859959421,
              -0.05138934238741889,
              -0.23048010327429871,
              0.16171254341824381,
              -0.2704537322539064,
              -0.061212810581535694,
              -0.12986909793893975,
              0.09574461805841107,
              0.038828347845621294,
              0.09511956612958432,
              0.21419526195328178,
              -0.09275295970645693,
              -0.24621901738446494,
              0.08032100704522215
            ],
            [
              0.06157058931099236,
              0.18187974157517056,
              0.20642828905258656,
              -0.27158404200116637,
              0.291526639610224,
              -0.28635656538628856,
              -0.18360259131547876,
              0.1497890069773649,
              0.3008449791936232,
              0.2449808718411613,
              -0.27642830803311896,
              -0.25420928504963847,
              0.18920103714366016,
              -0.040867982023450676,
              0.0642443200570766,
              -0.27552305435995494
            ],
            [
              0.22179449302455442,
              0.26072028795702146,
              0.04831675743703683,
              0.04720158767285179,
              -0.10526440592505157,
              -0.14245811370009703,
              -0.029572186206048696,
              -0.10294875694778881,
              -0.1476636148400185,
              -0.19087113714283815,
              0.06524051512987691,
              -0.10492290225640283,
              0.30486497139906077,
              -0.23670450592428977,
              0.15689325969861434,
              -0.16826541265139658
            ],
            [
              0.21335147236222604,
              -0.17180587280010012,
              -0.2850400490103404,
              0.0572982273288251,
              -0.03878849582363064,
              -0.19580160368812685,
              0.2289580111259539,
              0.128726630786206,
              -0.18315549411710755,
              0.3143739422442262,
              -0.30143646070490204,
              -0.2991916879634559,
              0.03845615767393683,
              0.23140244278681468,
              0.32209358237096647,
              -0.2418464110009743
            ],
            [
              -0.04405844487130273,
              0.05884755815962954,
              0.3166755582143767,
              0.10373913555906078,
              0.26743607520435303,
              -0.2033491307310866,
              -0.07450268814293279,
              0.09331840283766248,
              -0.13293954137827838,
              -0.029745986053940226,
              0.26351121827827284,
              0.00867426356024123,
              0.30959941875774216,
              0.20721147643032242,
              -0.12778518825611054,
              0.27192829768883436
            ],
            [
              0.07173914637026399,
              0.07024863706892212,
              0.03160794985617713,
              -0.07157621054200876,
              0.11802629807682032,
              0.008474211040248989,
              0.3844639912907638,
              -0.22256156511259045,
              0.11326023965491999,
              -0.30743139371649564,
              0.3079973905596954,
              -0.204660027976172,
              0.20484723766344032,
              -0.004936933663012819,
              -0.120598338773309,
              -0.23815023483477885
            ],
            [
              -0.03481824191464129,
              -0.254376937286685,
              -0.12261789235087193,
              0.31059792943075054,
              0.3123759671609077,
              0.40452464626012036,
              -0.05380698870911005,
              0.27084299404227913,
              -0.047697383558538885,
              -0.26067690333157767,
              0.20760540369042343,
              -0.05216229860861308,
              0.04918838700601875,
              0.2525583608144636,
              0.09093317937042018,
              0.16222408637998864
            ],
            [
              0.28375799857533424,
              0.16179511365306443,
              0.10724223979271799,
              -0.026540031794211914,
              0.11392224379587852,
              -0.14589314343520057,
              0.28046646239094547,
              -0.2519155237379609,
              0.20788358870265675,
              -0.34093547937104896,
              -0.17126126351852294,
              -0.12815134469639916,
              -0.11713739462574259,
              0.3239515267252581,
              0.15668452393151067,
              -0.08409871104536146
            ],
            [
              -0.231038334124456,
              0.17672530891952104,
              -0.16802911534423873,
              -0.0628387690712537,
              -0.32351732521723253,
              0.0003969097131988157,
              0.24412205999723052,
              0.36797294682824605,
              -0.1558369171898426,
              -0.12194979794893945,
              0.11305536255524623,
              0.3645533809586983,
              -0.15800492713705147,
              -0.10007369485639453,
              -0.16006168988012945,
              0.36158732607554717
            ],
            [
              0.25116920826992667,
              0.14989480419904158,
              0.042593394720595486,
              0.12731244473432526,
              0.20011991669039356,
              -0.10049202917715028,
              0.23394242839653495,
              0.10833578576554555,
              0.12678769469961096,
              0.1355281162217897,
              0.20284471972698828,
              -0.1328968418619997,
              -0.29734343922858797,
              0.31774573616017415,
              -0.3372071131064043,
              -0.2611715961292285
            ],
            [
              -0.10805632156910537,
              0.18255454105056937,
              -0.19610681896524063,
              -0.0003694065497745138,
              0.09302059521349267,
              -0.29547100453802144,
              0.42088397229151525,
              -0.3602319787334151,
              0.34588438419155354,
              -0.1577527991368429,
              -0.23823946339518692,
              -0.08244143200216904,
              -0.045212703259930355,
              0.16677193928719525,
              0.2589614106037712,
              0.15801718834744796
            ],
            [
              0.1933916380495625,
              0.14068181894312526,
              0.36957807262164916,
              -0.05923659533885541,
              0.06755670127338703,
              0.3477060177207146,
              -0.15563375338639143,
              0.30903206448262943,
              -0.1591751312327554,
              0.34703539295360203,
              -0.2554077220750864,
              -0.25135311300553015,
              -0.010275389585765156,
              -0.2702412441609936,
              -0.14606588685190475,
              0.02140692143190843
            ],
            [
              -0.2063341541098717,
              0.1191984042400126,
              0.03302816835380128,
              0.15502349095688386,
              -0.26350726595381985,
              0.38449350878051175,
              0.16982972107291214,
              -0.0414493990224154,
              0.29548716726464774,
              -0.19177664845610665,
              0.14820918395770552,
              0.18209237738498685,
              0.07327442658024522,
              0.1951132795768132,
              -0.09842287922705975,
              0.11335322518891475
            ]
          ],
          [
            [
              0.1600206910424535,
              -0.35218032917534753,
              -0.18233952411943774,
              -0.1911129603944276,
              -0.29507134549303404,
              -0.09290809226570806,
              -0.06345012430597421,
              -0.1644154629540127,
              -0.08953949460872287,
              0.0825025535029249,
              0.30746207887267857,
              0.04607487305727158,
              -0.20634529131948307,
              -0.15381833639429282,
              0.24763190116997583,
              0.1823484543700069
            ],
            [
              -0.1809225502171739,
              -0.017044407478818923,
              -0.17307878966446988,
              0.06486094430982225,
              0.16605699778319802,
              0.18919737989526497,
              -0.4068051778934225,
              0.14600481552027123,
              -0.22926055635073445,
              0.26183043163350145,
              0.3384870043052292,
              0.19562299519978135,
              0.14302422255560535,
              -0.1809143634003987,
              0.11310701310326947,
              0.0884516979619583
            ],
            [
              0.2886766998004343,
              -0.14747217740063345,
              -0.028888564095189816,
              0.10630282377755282,
              0.13203985643541638,
              -0.26623280273501165,
              -0.2542101798944158,
              0.23482430752864625,
              0.21265156344851435,
              -0.20416372640463998,
              0.1454445004903587,
              0.18387924865406996,
              0.05142123662952362,
              0.05904560124305109,
              -0.16207522063169824,
              -0.2555515878728727
            ],
            [
              -0.3030972703533492,
              0.16475955494989364,
              -0.2979978040388203,
              0.142455414998183,
              0.22711787155357266,
              0.12496351868550445,
              0.028739507442629545,
              -0.3733369441215969,
              0.006606007370774466,
              -0.18762501383836844,
              0.09003541501225762,
              0.25417868251572323,
              -0.19555505161429798,
              -0.28360588596871705,
              0.10936977915245298,
              -0.1907007193746321
            ],
            [
              0.26070460044329746,
              0.2915544178797512,
              -0.03628480292414224,
              -0.0105893142454837,
              0.23427275827507055,
              -0.28424119160163813,
              -0.0647461303795083,
              -0.18488289025027707,
              0.013084884815715276,
              0.24877620521563948,
              -0.20109582956964592,
              0.14308187074719436,
              0.015822985508944697,
              -0.24384264126480104,
              -0.009015189108943108,
              -0.0037797524097607426
            ],
            [
              0.3499265182071415,
              0.20111680948833818,
              0.19727128698304672,
              0.17722247245120745,
              -0.05494807181767064,
              0.3218052674409385,
              -0.012389105419317075,
              0.3791770020712279,
              0.27862388438631613,
              0.22392907527714945,
              0.29932824044445727,
              0.21010980490305659,
              0.21893863514946385,
              0.21151391987169685,
              0.46537539579882964,
              -0.08868873644815897
            ],
            [
              0.21363465878414264,
              0.051443677388317545,
              -0.3298066938820855,
              0.11525528103963714,
              0.29283011550675647,
              -0.38252482049687786,
              -0.21808555334308027,
              -0.1397332806647941,
              -0.03371179398187456,
              0.3728337871208105,
              -0.07250131860344526,
              0.30618183201370636,
              0.03896590942055715,
              0.27683493255497327,
              0.28562588841494935,
              0.3496524076786294
            ],
            [
              0.3086372668925396,
              -0.1288763410755557,
              0.27409046795306347,
              -0.14689155001514903,
              0.24561232237124234,
              -0.23105662565920126,
              0.18447026369831498,
              -0.0592890706293463,
              -0.0447858856715251,
              0.07555536075816707,
              0.16775686917114485,
              0.025179703194275566,
              -0.03349378652471519,
              0.1642760157552986,
              0.07744731997034794,
              0.12324567847054657
            ],
            [
              0.24485258793591386,
              -0.19667699530813973,
              -0.10888668402689491,
              -0.1684504766439963,
              -0.2377205655554804,
              0.3666688009889836,
              0.20055173535874307,
              0.01736272112759482,
              0.17820841030402929,
              -0.0894851670364376,
              0.14097533310039345,
              0.17879882138232053,
              -0.38175052232913953,
              0.14817358677704306,
              0.14289640745520618,
              -0.2810426785315547
            ],
            [
              0.16542307574880222,
              0.34402788652650523,
              0.3269410683299224,
              -0.022042642457622046,
              0.10033869742992954,
              0.07115595214005133,
              -0.12831735116606285,
              0.2654244699175162,
              0.347884032471311,
              0.24372488182727606,
              -0.33113904786822523,
              0.009578079824685466,
              0.22109497884249235,
              -0.20566559896525097,
              -0.06254690080271796,
              -0.1028443287209022
            ],
            [
              0.26224447860089434,
              -0.28677708908076716,
              -0.47342937941107704,
              -0.1482294218069442,
              -0.31780576203838246,
              -0.14592657722966912,
              -0.10332022117251785,
              -0.07891914772345604,
              -0.10408623085671515,
              0.19224908618144634,
              -0.010905484052119729,
              -0.10554616643959917,
              -0.3058143314799141,
              0.10878429481918427,
              0.2395940667812053,
              0.16577411716806617
            ],
            [
              0.14791333031478526,
              -0.037350382441842946,
              0.2422790815437797,
              0.08795970217133717,
              -0.1150263307691516,
              -0.25934473489022203,
              0.3461035442993933,
              0.16052792903499435,
              0.28695684208525285,
              -0.21829321434662635,
              -0.1308249844716438,
              -0.23316618847297135,
              0.28500806941892115,
              -0.0058992416886213565,
              0.1556647895163259,
              -0.19789996203995072
            ],
            [
              0.26618241894607314,
              0.26312966031813,
              -0.27792282374272065,
              0.028953241806414766,
              -0.023061356337110744,
              0.07498970093487912,
              -0.23701411323902927,
              0.10611542759223844,
              -0.20594393263480454,
              0.32119274017496363,
              0.2662994329417421,
              0.13247792625802493,
              -0.08608034373601037,
              0.3383616503490921,
              0.07829200662177133,
              -0.0027500310436157594
            ],
            [
              -0.1894945294022504,
              0.21997509910274904,
              0.05052130923969957,
              -0.32790368543413884,
              -0.23671542666000273,
              0.08087867455123192,
              0.3660711566451055,
              0.0476910462642731,
              0.12956669975954413,
              0.05422793831180975,
              0.0418672704464501,
              0.39103029765380604,
              -0.04368024023591093,
              -0.04636679736761136,
              -0.15696252145651632,
              0.2539370251701699
            ],
            [
              0.19308962093327817,
              0.17611214058067398,
              -0.07748091871529164,
              -0.1480056188980962,
              -0.04913703003143275,
              -0.019621430111181563,
              -0.08133198349256106,
              0.06419482659979094,
              -0.09320079811193702,
              0.5392425558651696,
              0.07947952725873425,
              0.250066219197636,
              0.056057980470383906,
              -0.039090136028039964,
              -0.2360488329366091,
              0.22118097579990062
            ],
            [
              -0.21004376929273924,
              0.23721608204482678,
              -0.15620107435249891,
              -0.26049510088159944,
              0.3869549045729363,
              0.20573314001835954,
              0.272325951042009,
              0.011657330857685121,
              -0.06258238078134325,
              -0.22673645316584318,
              -0.13012999115128437,
              -0.24594403567441356,
              0.04415171363935774,
              0.2759424444490186,
              0.5097048560178574,
              -0.024894699864292904
            ]
          ]
        ],
        "b": [
          0.1385224915313933,
          0.03510592490644766,
          0.04046714260935183,
          0.08792792291514528,
          0.05654521229963681,
          0.025624666627437037,
          0.042868093309915194,
          0.08791117343675287,
          0.18801633204514176,
          0.057165807685262,
          0.03428694597041166,
          0.02792296993444573,
          0.03200825206796138,
          0.10845025471907223,
          0.19702324532788626,
          0.044575256882980405
        ]
      },
      "kernel_size": 3
    },
    {
      "type": "ReLU",
      "params": {}
    },
    {
      "type": "Flatten",
      "params": {}
    },
    {
      "type": "Dense",
      "params": {
        "W": [
          [
            -0.20978798662148362,
            0.06614433231448202,
            0.01660004333734015,
            -0.13476913486567735,
            0.035322888550237505,
            -0.09585755562136425,
            0.052047985914617706,
            -0.24392371812405017,
            -0.0993736649775815,
            0.015195829299216259,
            -0.013969174688594328,
            0.19710251047453928,
            0.14658997885677036,
            0.05941371318683401,
            0.13191188481053984,
            0.02504206715636604,
            0.023117346052440715,
            -0.20210267708254298,
            -0.02153175950818598,
            -0.020778996794995754,
            0.14113196875202594,
            0.23555756995638338,
            -0.3174348578165325,
            0.0873476957476524,
            0.1052794677784401,
            0.20470620601876738,
            0.05072873997003592,
            -0.27096122798230105,
            -0.002175769288401656,
            0.08757324995419807,
            0.03357748713383994,
            0.13398213132097567,
            0.1532393931321802,
            -0.10221970642158502,
            0.031979756079128334,
            0.05091089249258913,
            -0.20442148730911427,
            -0.017291419072311093,
            -0.06769658657925816,
            -0.03174993956540658,
            -0.02728454173282706,
            0.22848742500822367,
            -0.11044514514657205,
            -0.2172705182299718,
            -0.01419808329359333,
            0.1925066216228972,
            0.046156944106548595,
            0.2042329880171287,
            0.05232603574970678,
            -0.029821404503750062,
            0.18115467437169683,
            -0.1329580167080508,
            0.09798594911319618,
            0.10709112442951556,
            0.2885034997493037,
            -0.2874121099090108,
            0.052080706790257836,
            0.14809582901183582,
            -0.08403568442099757,
            -0.18402103503729714,
            -0.024667709901064927,
            0.02946950202225929,
            0.26733629716289475,
            -0.00810662368374087
          ],
          [
            -0.28354726360692495,
            -0.08336728164015492,
            0.19269342836670314,
            0.024309108709958137,
            -0.21493727901009785,
            -0.183524217895663,
            -0.051489352917597944,
            -0.1858929624392781,
            0.022867590793111403,
            0.1416179811997885,
            0.10048176882449597,
            -0.0059064489060181805,
            -0.1016596197526966,
            0.17568442924996197,
            -0.021609321800328922,
            0.14718750908192216,
            0.12892586248593801,
            -0.20179455988126668,
            -0.039796364794925085,
            -0.07586799914403938,
            0.4836646357956942,
            0.4566817337868158,
            -0.31219625171598203,
            0.002568244109880959,
            0.22686495979606314,
            0.014894645829867745,
            -0.27069749310521496,
            -0.09728880327751639,
            0.13960495213444213,
            0.356470753040368,
            -0.1565310716350168,
            -0.016699346165912492,
            0.24211913152713743,
            -0.31521197974961795,
            0.09126614479189574,
            0.04623540017238347,
            -0.21333389739508932,
            -0.021531482928184506,
            -0.1471894236923902,
            -0.371713216068198,
            0.12855007286159623,
            0.16773987855665948,
            -0.27344435065318135,
            0.03886656562286159,
            0.09979192363060764,
            0.2944501537246444,
            0.14812199214641267,
            0.12771710979426817,
            0.24651879560617426,
            0.009333371061230358,
            0.28124402662785974,
            -0.09700953960503676,
            0.22153677766709462,
            0.21271098289083223,
            0.12275299564276156,
            -0.3791972201621784,
            0.031796033878140555,
            0.1540801624056287,
            -0.22324171564674572,
            -0.13317792229086245,
            0.24712820329848595,
            0.07002547460636449,
            0.3119707046884765,
            -0.3133204158877182
          ],
          [
            0.42295771459547804,
            0.06734296123737818,
            -0.3195210789434448,
            0.10319077708709767,
            0.3325951904232135,
            0.23327058108597243,
            0.021350518207448183,
            0.3600397568384044,
            0.19404403582207203,
            0.5081311699564921,
            0.5650868666151521,
            -0.08070006920148122,
            -0.10682662400027872,
            -0.14231091283147318,
            0.5434871212085551,
            -0.2931309358711609,
            0.06156480511758193,
            0.18839150006026892,
            -0.1109573645901403,
            0.35620792037610516,
            -0.24680177154807886,
            -0.31665390705624136,
            0.35462349933146,
            -0.03213533920362975,
            -0.1421004296074982,
            -0.13170289154362239,
            0.0952750424566492,
            0.3923325864391567,
            -0.4097506950013782,
            -0.35501366222279573,
            0.5138998692910278,
            -0.31399996994033536,
            -0.38988597971829053,
            0.34756507648314805,
            -0.08204714171525819,
            -0.378118770062879,
            0.356268756875674,
            -0.22126138192039904,
            0.05265144789679022,
            0.37095811451444616,
            -0.1387738946387355,
            -0.41760779014700494,
            0.22100651507148525,
            0.24106047667686814,
            0.3218759273938211,
            -0.2765126876332268,
            -0.013160205716804013,
            -0.3773644645195233,
            -0.25027814520469055,
            0.06976491940891061,
            -0.43188039360418523,
            0.11556920917026293,
            -0.3650991681728947,
            -0.32503024125972557,
            -0.2551345859738242,
            0.19123722667795032,
            -0.14736224170726572,
            -0.10967262150448374,
            0.4426595108413338,
            0.07326162055932188,
            -0.34473076800989394,
            -0.3196262854543424,
            -0.4323427550485023,
            0.413405988847871
          ],
          [
            -0.3209991160882891,
            -0.15029208982143788,
            -0.02971804026957659,
            0.10680446818971273,
            0.030096541474618765,
            -0.10416660901767452,
            0.05287931967151793,
            -0.33577869521457354,
            0.03764404246330839,
            -0.13241267512408958,
            -0.09725003050162817,
            0.06369221384972207,
            0.10340785975811813,
            -0.07708554745447438,
            -0.09783371164986317,
            0.213502243467455,
            -0.15617642131427964,
            0.03298260779891953,
            -0.004755027999749777,
            0.09808725708182872,
            0.15884979930651522,
            0.19532857495314132,
            -0.08656650542231692,
            0.10094016314714802,
            -0.09526947888516894,
            0.14360837362672002,
            -0.053632630639957754,
            0.018971629662292808,
            0.10614888090362466,
            0.018938680430607223,
            0.11495945220235278,
            0.025549709835420743,
            0.12464084511213401,
            -0.1288070816974769,
            0.009158546047442926,
            -0.11349677397504308,
            0.02661246352863514,
            0.16920571414222577,
            -0.17915070589008825,
            -0.07521427484374713,
            -0.004806035288572202,
            0.19953125466570093,
            0.05432219656811059,
            -0.12212639821731511,
            -0.08059172838916287,
            0.1983207830516116,
            0.08012770273095352,
            0.026300020229987807,
            0.12984415909861036,
            -0.09678704806076266,
            0.14024654699019087,
            -0.15576600222034426,
            -0.10403940065468081,
            0.1270820709026669,
            0.014153974957724368,
            -0.11912466395683328,
            0.10025997701885103,
            -0.009929414038859942,
            -0.17572281029847778,
            -0.19940854087059784,
            0.15193978685105863,
            -0.13878993677408946,
            0.3666380003559647,
            -0.22349704889587246
          ],
          [
            0.08777933721404393,
            -0.0227538539249906,
            0.01359439737293408,
            -0.05344443799228607,
            -0.05542300955622779,
            -0.05547693160770224,
            -0.1799457716000524,
            0.16370271171703424,
            -0.03293270473094009,
            0.05300570800565822,
            0.11175834407393914,
            -0.11685536757161236,
            0.04549518123006195,
            0.029170620212321773,
            0.16986428414819396,
            -0.03571507128369365,
            0.12830755351650594,
            0.1097706167231099,
            -0.08375127191880473,
            0.022014749517949673,
            -0.1635102589069218,
            -0.1598197484231993,
            0.02513087531657462,
            -0.12228224108510544,
            0.1475305128194856,
            -0.15062784051310668,
            0.127650375128607,
            -0.07935486459447294,
            -0.02705664454133234,
            -0.08794780310467386,
            0.10291935159213221,
            0.15238274246841757,
            -0.05952711417695036,
            0.05843095493035356,
            -0.057546182118736425,
            -0.09268281463357889,
            0.09890568205502444,
            -0.0800680404915807,
            -0.047335259818086936,
            -0.04768669916327341,
            0.0321220558081568,
            0.06072028120675306,
            0.1663810483053012,
            0.132996538742903,
            0.10467289161077141,
            0.028195926658187678,
            0.006132895233497038,
            0.1435614299442708,
            -0.14058780442238736,
            -0.17812784374722146,
            0.10638723205987709,
            0.04767870692969813,
            0.15344120615416812,
            -0.061076993948557985,
            -0.001723382656227125,
            0.17561348806545313,
            -0.06354529041392627,
            -0.1860118843403525,
            0.010350921670607282,
            0.016129692214659767,
            0.12797689206141807,
            -0.14147962056001193,
            -0.04854505709116948,
            0.06329898169246538
          ],
          [
            0.37356149251506443,
            0.2774231026177957,
            -0.3112712795674871,
            -0.033395897145772846,
            0.03265922211047452,
            -0.04561342665295635,
            -0.031241772423452246,
            0.38408790918484637,
            0.16229352782885567,
            0.2641677498392399,
            0.2891719919052402,
            -0.10296316470489804,
            -0.22723399116452703,
            0.036578765825039994,
            0.21368612548368007,
            -0.24311769531087618,
            0.15209815946394864,
            0.06546736499061273,
            -0.14427915241476408,
            0.24111440020941227,
            -0.28698136478236275,
            -0.4249990648087596,
            0.4774955668915565,
            0.06866735743278805,
            -0.10463962019716712,
            -0.08503835257730721,
            0.09592836347637253,
            -0.02346751179207075,
            -0.0760463553589105,
            -0.25846984355414937,
            0.08277171758105503,
            -0.268307832160277,
            -0.304554969781456,
            -0.049059626139571766,
            0.018459745331685762,
            -0.2596249290465756,
            0.11845217748640748,
            -0.29513471248134876,
            -0.002908840494388149,
            0.09807380243539304,
            -0.26106524069276815,
            -0.20437257977509077,
            0.27806095370980627,
            0.12462786706381115,
            0.25048326149281164,
            -0.40681570140844225,
            0.07206429542452983,
            -0.18123727602510534,
            -0.40727180896222864,
            -0.17043444573605318,
            -0.16478073382520686,
            0.20224730261075885,
            -0.12244202488964444,
            -0.08804565819549973,
            -0.4649837254509068,
            0.3065600200896748,
            -0.22474952379859292,
            0.129276755145691,
            0.23130226741627433,
            0.21053565811875005,
            -0.16139962297107485,
            -0.13792924409601298,
            -0.4485115464020123,
            0.4147584705156823
          ],
          [
            -0.30388311833512255,
            -0.0347318965385246,
            0.19916608509922917,
            -0.023739294386957512,
            0.086730858362273,
            0.08030057683943786,
            -0.015419125199048783,
            -0.02123862849626416,
            -0.15113809340328593,
            -0.11401909667488917,
            -0.2169076834852629,
            0.07534193813802653,
            -0.011931619838928691,
            0.27439088128913486,
            -0.07086309268634416,
            -0.05091840281422062,
            -0.008737258813189047,
            -0.1646379695550237,
            0.1762761134647141,
            -0.153278384048251,
            0.02413288903317595,
            -0.020946538564695787,
            -0.28245913677194956,
            -0.10454986830834997,
            0.06309727492948952,
            0.11635561872764655,
            -0.09354251140518474,
            -0.16967750954887362,
            0.24785653887901954,
            0.14206372740305037,
            -0.03937980657347114,
            0.210483270700048,
            0.0340782618939476,
            0.15349632846775615,
            -0.11657879319665865,
            0.24075589270752457,
            -0.19622186650110618,
            0.19627862649934757,
            -0.16627559944685832,
            -0.08157720865036161,
            -0.0891183122130621,
            0.35625749383319416,
            -0.09035355203035178,
            -0.0333274990646937,
            -0.13038207329408583,
            0.2072493137701575,
            0.013534671389394187,
            -0.0400120229948182,
            0.24872850853157133,
            0.04528118090622694,
            0.129359620721023,
            0.05005841144251326,
            0.07138527351575766,
            0.04327712696872266,
            0.3545624781589893,
            -0.18425788320503433,
            0.2585931604180965,
            0.0920338442841304,
            -0.04374560852781884,
            -0.1712435954328438,
            0.03985523906445952,
            0.14447038541369614,
            0.14760488955659587,
            -0.11801163283424061
          ],
          [
            0.025264113678014698,
            0.1094156957164802,
            0.16017078600987575,
            -0.01644068086937627,
            0.10894214366866536,
            0.09056004804505453,
            -0.1253139663683853,
            0.09919391551458412,
            0.15175396768257618,
            0.06807853249896549,
            -0.0511636681517946,
            0.07652612593497735,
            -0.037809836121041204,
            -0.12983480995251312,
            -0.029083566790697405,
            0.047187732075038985,
            -0.05984920121586556,
            -0.0050144649578271975,
            0.03483199677650219,
            0.14636926281179755,
            0.07944027718181984,
            -0.03697673119023844,
            -0.0015151339335938234,
            0.07706166079460744,
            -0.10686607607500988,
            -0.033148888701624496,
            0.17380746609741357,
            0.06607077922464073,
            0.04301687806799088,
            0.13035380071656288,
            0.10602059216442558,
            -0.16562778505103487,
            0.1922530804179605,
            0.1641759648145171,
            -0.10663697314377124,
            0.023874940934935935,
            0.1355860974351236,
            -0.018377152896817378,
            0.12996550379172558,
            0.18586850397210694,
            -0.05025805352240901,
            0.21527407914679125,
            -0.09166743145469977,
            0.10716024624604129,
            -0.08420188176098356,
            0.14393458882514842,
            -0.016779284056883507,
            0.19194819803948393,
            0.20949239351155197,
            -0.18654925731376487,
            0.1100097903002244,
            0.1880636718106969,
            0.035236368120433924,
            -0.018953257301009507,
            0.13868247468899844,
            -0.04665197971253803,
            0.12487605416532008,
            -0.07560429552553488,
            -0.11236822971027477,
            0.03324703560217461,
            0.016757689025266594,
            0.1939141238612345,
            -0.009531147076714508,
            0.1790847530759385
          ],
          [
            -0.26499318608489725,
            -0.0017576689987599129,
            0.3431398855632611,
            -0.09125291235498197,
            -0.3092706707359496,
            -0.07981702242590358,
            -0.08530966289664765,
            -0.36809891627185315,
            -0.26174875562109273,
            -0.13606706622859235,
            -0.19477561343832994,
            0.11940247027362788,
            0.1865005087026826,
            0.12214102610368893,
            -0.21249634204321013,
            0.2676728270486701,
            -0.22284350457124247,
            -0.07818646950126558,
            0.23694519806691688,
            0.034339232415954137,
            0.37131270858992754,
            0.16189543686304628,
            -0.11276635139288609,
            0.05395164246799855,
            0.1760768973109411,
            0.06304957799367214,
            -0.2596384613106966,
            -0.07995369520950192,
            0.2713328774244175,
            0.395914234116247,
            -0.26853735102051396,
            0.27807007114164706,
            0.39168003238792193,
            -0.1191600603644213,
            0.13879800923597937,
            0.16247024090405265,
            -0.37875584411322466,
            0.28185404875297443,
            -0.06871829409265848,
            -0.23685399583432035,
            0.037553413304743787,
            0.40498184756866235,
            -0.29878124409143225,
            -0.14758557399163866,
            -0.007366800729058455,
            0.2450781069513489,
            0.10151885201455198,
            0.24202971769546763,
            0.24000502974186813,
            0.02382795934585626,
            0.46627532223324025,
            -0.3728825220320757,
            0.2568119876225579,
            0.2631006463455044,
            0.366364259181507,
            -0.3786124652438965,
            0.2586242133932563,
            0.012658815442806228,
            -0.3011964593120096,
            -0.323326671240794,
            0.0832634128947581,
            0.2735724472621364,
            0.34716743662517124,
            -0.05642499772063858
          ],
          [
            0.6510854715797277,
            -0.08585621750931731,
            -0.3420142752269093,
            0.0681989832674336,
            0.22389930276312126,
            0.03227732780146731,
            -0.018625784175510515,
            0.3945310822938844,
            0.16084047761699494,
            0.012478813528558532,
            0.10442634884485026,
            -0.027970502020863312,
            -0.08153513418202783,
            -0.17511975732125087,
            0.12830350463488258,
            -0.28767387853568405,
            0.17124660299933867,
            0.2226528146982166,
            -0.11121815455762336,
            0.2218345485805127,
            -0.2035339233556816,
            -0.5016838956068213,
            0.41217943553916325,
            0.16073294852378794,
            -0.02231512086119954,
            -0.05492659969560719,
            0.3457871400682963,
            0.40601910361689175,
            -0.018399687285544006,
            -0.1461456515348884,
            0.21578091328922913,
            -0.0012220417797767023,
            -0.0840918453201709,
            0.3135745404120876,
            -0.16136946692379944,
            0.03632440583067443,
            0.6135905150388781,
            -0.22555385653145885,
            0.4693974490303885,
            0.30945048465059977,
            -0.10751941223538004,
            -0.2486094084745386,
            0.35662881431996446,
            0.17121632814349766,
            0.23446800006176352,
            -0.12599209897932784,
            -0.08923507159278585,
            -0.09015628646063804,
            -0.5056026690873876,
            0.1582568007407928,
            -0.35516235589181167,
            0.02421149205996657,
            -0.30726777835960234,
            -0.047209889998043195,
            -0.14569235793633403,
            0.3639130160694657,
            -0.043609413712299004,
            0.01862150692168406,
            0.39001432204137276,
            0.5172595398757913,
            -0.3339326973831404,
            0.057472715399279777,
            -0.3249263211805649,
            0.7615812623572363
          ],
          [
            0.028955525335160194,
            0.13832990257814434,
            -0.0703911623428431,
            0.18491161549543864,
            0.09065227311183721,
            0.20470933801291963,
            0.12986438626117427,
            0.1936016047210037,
            0.2655120170419546,
            0.1673862013928627,
            0.21521214416940448,
            -0.26443738910206527,
            -0.2107861964449616,
            -0.05826974930992115,
            0.10808785505890006,
            -0.2644243824467559,
            0.23454562130600498,
            0.10960218755148546,
            -0.24339675533825578,
            0.10457667649200186,
            0.030565059191410785,
            -0.002050504983181578,
            0.16288426136450945,
            0.12140307582656677,
            0.004516564905237364,
            0.06419436982892537,
            -0.010241111792441863,
            0.0226711356490046,
            0.03903134817823602,
            -0.27704804643415826,
            0.22473269693435163,
            0.03364879997882343,
            -0.21426068328901277,
            0.20696103922756587,
            -0.16035028518700703,
            -0.03614203884497218,
            0.25178215848998686,
            -0.27113573103112915,
            -0.017601708732249234,
            0.20928697851499592,
            -0.01117548460609232,
            -0.299268545606574,
            0.08814067299937728,
            -0.04174207073014247,
            -0.06468769817001972,
            -0.06721315113833014,
            0.1492019862317015,
            -0.020310051574689552,
            -0.05780908513667263,
            -0.1322930393947189,
            -0.3380392104104704,
            0.23512778943879364,
            -0.2892285554351807,
            0.050708158336171864,
            -0.03572018879042729,
            0.14677980481338385,
            -0.03835789765534548,
            -0.1037299440186962,
            0.22082279199469895,
            0.024996688273366336,
            -0.2821438244386624,
            -0.06029311754475495,
            -0.24672267172721063,
            0.2108152288859242
          ],
          [
            0.2632604241377038,
            0.10628548692209447,
            -0.16129109294975322,
            0.18867249845284254,
            0.00836458552992433,
            -0.025147736413417762,
            0.03112940504012989,
            0.23304166815098387,
            0.27158817574340444,
            0.1318623345484293,
            0.49345914390836215,
            -0.25543701622113685,
            -0.26737688136831717,
            -0.051456120278235595,
            0.28335703897158987,
            -0.06957356040060364,
            0.21981974784343397,
            0.012100140196552981,
            -0.25844314983496874,
            0.07696765536703579,
            -0.15702099213133588,
            -0.18303868580283006,
            0.20872282230919006,
            -0.0908992010655487,
            -0.16643686687970496,
            -0.08510342942147855,
            0.26901714183439607,
            0.2882132505025776,
            -0.1897679430809607,
            -0.24625590184170523,
            0.1756565899767147,
            -0.1625754019729288,
            -0.0899816927865236,
            -0.03393017310621916,
            -0.13194772377485203,
            -0.09606899023323527,
            0.285002697334157,
            -0.06738254355206466,
            0.08754768332906573,
            0.28484078706074223,
            -0.25302029124709186,
            -0.36115804298470633,
            0.04412238009088074,
            0.22576335792063937,
            0.3008989990322337,
            -0.16764299739355246,
            -0.0772910911595685,
            -0.11541862407579725,
            -0.34477310148144474,
            0.09104071318899751,
            -0.22381574645412597,
            0.07507550299366292,
            -0.12837612051725567,
            -0.28225499771515833,
            -0.19650782798365182,
            0.2363015166746479,
            -0.17836181766086406,
            -0.15898861771153555,
            0.18993999134334127,
            0.1595582537353129,
            -0.13786493222081359,
            -0.04864672456664247,
            -0.31866849839379396,
            0.33857427547661173
          ],
          [
            0.1734955843314502,
            -0.0068236559348216486,
            -0.15024042097657356,
            0.12978095767238113,
            0.1048128236308593,
            0.15202966722722264,
            0.11345249717579511,
            0.08830838716655125,
            0.20184184939475183,
            0.15824534146382935,
            0.2549422564941278,
            -0.22437219591211915,
            -0.20209531803931866,
            0.0283075267757398,
            0.2587180054844115,
            -0.21010845675904455,
            -0.011122337805715901,
            0.05247733651573445,
            -0.0013030588278484486,
            -0.04100976600925764,
            -0.0069001396982460664,
            -0.20298976277654912,
            0.24181972653781444,
            -0.07272240684994667,
            -0.05266963190141202,
            -0.16128555407806733,
            0.15981861363346436,
            0.14549652095033436,
            -0.18245650111261155,
            -0.22256689474545963,
            0.305169646949402,
            -0.09433264877813828,
            -0.15258998491828132,
            -0.03545214165991769,
            -0.007767072750939915,
            -0.09934469451346915,
            0.21241302912528973,
            -0.12272439345497443,
            -0.010168167753216389,
            0.2098643794182247,
            -0.1817296933603819,
            -0.28680403921043246,
            0.15156021270288136,
            0.25110456462996467,
            0.05739032056839988,
            -0.27139094091204813,
            -0.1612120933810745,
            -0.04002136727615488,
            -0.06276652592405225,
            -0.14089458348050343,
            -0.19297817620573762,
            0.016942924593032333,
            -0.006643816625271853,
            -0.26669325630105756,
            -0.10533688590365979,
            0.13855231351888225,
            -0.015840115746795353,
            -0.12969558080163968,
            0.265066461133188,
            0.12445889798496282,
            -0.13318093584821353,
            0.023564887671290786,
            0.031204560252195538,
            0.1872575932924262
          ],
          [
            -0.1744758273747471,
            -0.010815857178642061,
            0.03838483872701487,
            0.030702094946226634,
            -0.06495948517405495,
            -0.08424146271431267,
            -0.01968145052265829,
            -0.09594187869986202,
            -0.18941912952632595,
            0.09451231589858855,
            0.06624634718623032,
            0.09634216790415254,
            -0.027650075043591803,
            0.14015540592001605,
            0.0133594502980799,
            0.11262274978780633,
            -0.06448464743965043,
            -0.015557144807330465,
            -0.10349682266833259,
            -0.00010230199740755364,
            0.26371167877193885,
            0.15742754343435128,
            -0.1964721609330332,
            -0.1152429297261447,
            0.0650297377471746,
            -0.028313373569630228,
            -0.09619592471688468,
            0.05894817714271397,
            0.16141097775202592,
            0.05429748584898359,
            0.09690928610837961,
            0.09902655985817696,
            0.1682695524151786,
            -0.10914561002206928,
            0.09317939653015261,
            -0.043433133468279414,
            -0.2021819317322263,
            0.11261838075317392,
            -0.00802295935616895,
            -0.050122190395853014,
            0.19254546933442215,
            -0.001117712103988825,
            0.010429308062727512,
            0.02998084536876229,
            -0.09299557194336791,
            0.010544616601345442,
            -0.10904188452201674,
            -0.060017721765960236,
            0.07799200814099261,
            -0.016165983966368015,
            0.3789614995522458,
            -0.05155408859800419,
            -0.03812597208310916,
            0.10624566530957544,
            0.16223900169561303,
            -0.25763603313525135,
            0.04563310109824218,
            -0.19554899474321724,
            -0.3711275986430037,
            -0.2656512739329439,
            -0.05833049416903049,
            0.1777688079040761,
            0.578450194842509,
            -0.1536381877337898
          ],
          [
            -0.6347711244162375,
            -0.3201975854258617,
            0.7096979318235129,
            -0.5525738281822238,
            -0.4873058156425499,
            -0.5854570311043129,
            0.07331591153574765,
            -0.5899192567351,
            -0.42878067307178647,
            -0.3675024373300333,
            -0.5822096786236686,
            0.5151887156883901,
            0.7494883886823117,
            0.5630747890007457,
            -0.3627674856203692,
            0.46075025655049534,
            -0.30139791935117605,
            -0.5266184082441389,
            0.5968219173681781,
            -0.48829748733315315,
            0.587699278051963,
            0.6553262868571494,
            -0.6922208144790414,
            0.08591632021540312,
            0.6745528989934564,
            0.7095977650345515,
            -0.7332511026759354,
            -0.4231134564199669,
            0.6889336592575104,
            0.6420295768101095,
            -0.7970633925642586,
            0.7216496128183189,
            0.6315890322661543,
            -0.7344862406860472,
            0.13669987276443465,
            0.44085912597272314,
            -0.8381222709134278,
            0.6702924187433821,
            -0.5654390379269387,
            -0.6690861209684831,
            0.6989909254600473,
            0.9136009351630944,
            -0.5950011653047722,
            -0.7404999229309076,
            -0.7418633697428084,
            0.7466786878805031,
            0.07841391025918201,
            0.6613071651788223,
            0.6773219701865263,
            0.07111551094897257,
            0.7075244963697725,
            -0.3843029913479724,
            0.5174913662254058,
            0.48206869314274153,
            0.702192001446143,
            -0.7178981606885821,
            0.5529551631055442,
            0.03016575843627443,
            -0.704297991454383,
            -0.5123364565995261,
            0.545405766520877,
            0.7112284561875436,
            0.5380453735053843,
            -0.6977783324693938
          ],
          [
            0.22176255127405703,
            0.15938992464512064,
            -0.1352180183599366,
            0.20322604743050304,
            0.1350229648391238,
            0.028437290236416547,
            0.08779024904055957,
            0.11651326690867447,
            0.1055965441096271,
            0.18554396894394054,
            0.17732244687583132,
            -0.025032055517844237,
            0.01731894603020708,
            -0.17349345289531642,
            0.07212260872652734,
            -0.140123701856609,
            0.244457705194868,
            0.09488751656731642,
            -0.10476710793582508,
            0.2388836612345278,
            -0.17055160106661926,
            0.08178955927169083,
            0.20655717746680383,
            0.11707479734029261,
            -0.2156896891845044,
            -0.11254169072933902,
            -0.028343480722683643,
            0.10529651045504385,
            0.05810276447746887,
            0.004441898990217344,
            0.24742780174533174,
            -0.16843158563584942,
            -0.1959732284264797,
            0.11894213202022647,
            -0.17128539833782208,
            0.011389934146197376,
            0.11639088821624843,
            0.03717127897582445,
            0.053852419969562366,
            0.0557363382204023,
            0.002619081868880845,
            -0.12193039822748115,
            -0.020604162748596826,
            0.14530737962186216,
            0.005049590458567127,
            -0.03861675790260585,
            -0.0570473617223348,
            0.015956112405199337,
            -0.17655264015499256,
            0.029234881747438903,
            -0.233104496297292,
            0.06900166774753176,
            -0.20738550191092472,
            0.010263987128668816,
            -0.0026370249874339766,
            -0.08975212524087593,
            -0.02405766600206222,
            -0.19393194075369513,
            0.19130159079209044,
            0.043054811964105585,
            0.039812960485201415,
            -0.06404276904399106,
            -0.09651602681526798,
            0.21069693270686624
          ],
          [
            0.04142668855047517,
            -0.026932087538392387,
            -0.029150204353335662,
            -0.05208676193860546,
            -0.0142887478372431,
            -0.15813358589087886,
            -0.1048343126077912,
            0.06305252185568505,
            0.015023265570451163,
            0.0962398896652044,
            0.06992295391684024,
            0.17921311257813355,
            -0.004847306544049537,
            0.19894483830129556,
            0.0676496316482513,
            0.21211704827490124,
            -0.1512533261404051,
            -0.11868855540320342,
            0.13966097136858122,
            0.04005775328903202,
            0.06470423572204191,
            0.07117021320846213,
            -0.009232709117326172,
            -0.02067395025479996,
            0.21039244038827667,
            0.15757906864045554,
            -0.011628446232206166,
            -0.2545596612535206,
            -0.11944437012526839,
            0.22264297597473037,
            0.01095122681421275,
            0.16541028858374293,
            0.13785980618242408,
            -0.1636796011460486,
            -0.17068570153809748,
            -0.13681817291298065,
            -0.19660373841091783,
            0.19677182366847662,
            0.11191659236422742,
            -0.058588953174104126,
            -0.01454416714414129,
            0.07217700325858396,
            -0.2386322128094531,
            -0.007372405786894687,
            -0.03819434058856234,
            0.12392196092742794,
            -0.1020634713932934,
            0.04077518193962011,
            0.12668376494391653,
            0.07343105782879847,
            0.07278046745117112,
            -0.08508446041932823,
            0.08422717989063559,
            0.1973747445674835,
            0.06651680921878955,
            -0.020997501365202703,
            -0.0722932137691444,
            0.07885489394658271,
            -0.15281057019571215,
            0.013013613909382942,
            -0.04604812595873564,
            0.0596583153850452,
            0.07966566886482541,
            -0.13286677329876084
          ],
          [
            -0.2958809270899502,
            0.022449015798120902,
            -0.10897407912061673,
            0.1477138864959326,
            -0.24474534626178457,
            0.1342336618229245,
            -0.039846179497556165,
            -0.015432027620268254,
            -0.05729340530931803,
            0.03537504168768985,
            0.12717194605001664,
            0.17331295981772815,
            0.10006658194483098,
            0.1271642835470652,
            0.11714568292224813,
            0.028634845059829075,
            0.024529582726047706,
            -0.017833338253021528,
            0.007945272434821305,
            0.02274069134818869,
            -0.011905119501304476,
            0.013074176685674739,
            0.07962932058953395,
            0.14159202423352796,
            0.025774299617391184,
            -0.10502479334985394,
            0.009332439471529171,
            0.015070939112086417,
            0.07294096246607226,
            -0.07179825768959072,
            -0.01575431680252101,
            0.16739865990679903,
            0.03973856078489098,
            -0.1750672738550835,
            -0.1408576060691801,
            0.0877728233188017,
            -0.04855585193607609,
            0.10842442849541947,
            -0.1411768506439837,
            -0.20151539401039123,
            0.08445966589018403,
            -0.0438841862737618,
            -0.12271438125961705,
            -0.1851315715752963,
            0.086375717802581,
            0.043278426129487284,
            -0.08245738015231828,
            0.056822146665227044,
            -0.011075432758651553,
            0.13049389996392885,
            0.09092476706318393,
            0.024468750135535983,
            0.06438669621866704,
            0.08838626340279118,
            0.03685945521005776,
            -0.08099448883255218,
            0.05488557087215702,
            -0.16810660714566858,
            0.11686159845590706,
            -0.2502023516782238,
            0.0024206524747981675,
            0.13432017222635256,
            0.06929619415083695,
            0.08930468725342357
          ],
          [
            0.3032203786500217,
            -0.07331227410804268,
            -0.19171806359713184,
            0.22113805562284827,
            -0.014437236053365127,
            0.0790640549219643,
            -0.15638622195469423,
            0.0920757769722353,
            0.13888618496062466,
            0.2070584995042079,
            0.16515300489153223,
            0.00921935378011665,
            -0.20595415002002918,
            -0.1929351992647901,
            0.08098405381044228,
            0.025469846174321655,
            -0.041316308336677675,
            -0.07298213263245776,
            -0.0048156599684640545,
            0.19326301879838456,
            0.07470144818385241,
            -0.25249810232022696,
            0.16603810365703245,
            -0.005746745735959269,
            -0.06721936518528718,
            0.05631973789410038,
            0.26314420689275536,
            -0.040522444745480744,
            -0.17931540331204104,
            -0.14443484136655346,
            0.04548041490727084,
            -0.017519340550118747,
            -0.12723596590373829,
            -0.08186997334549015,
            -0.16379124958748537,
            0.08424989186029237,
            0.2781684158056444,
            -0.23178030975561306,
            0.1566778922073939,
            -0.040922830713517475,
            -0.16108779036038234,
            -0.11590880093935178,
            -0.059890338175943046,
            0.10832905702469905,
            0.0663588247392579,
            0.03844181559473032,
            -0.0803929218878623,
            0.012161013444752527,
            -0.08220331460465662,
            0.04704316257609294,
            -0.1871171372145434,
            0.29989904309361776,
            0.044284452094128825,
            -0.07011962710513261,
            -0.16409246583375578,
            0.26183752867035576,
            -0.07356909801445688,
            -0.10679474488974006,
            0.09430483853889937,
            0.16137560503157586,
            -0.05800157160394144,
            -0.001481048505017424,
            -0.10020828634489881,
            0.13962100477603562
          ],
          [
            -0.001937185332115368,
            0.10478200860445702,
            0.06010334473204414,
            0.06470936227449911,
            -0.07081923083707502,
            -0.0675210937360061,
            -0.04304976345710479,
            -0.20889199371636039,
            0.048168467487810764,
            -0.17324417983493978,
            -0.09806984221557051,
            0.18354920282557236,
            0.04563843425146429,
            0.1246014434839949,
            -0.0054934665156048945,
            -0.09534112633078343,
            0.12152008861106464,
            0.14226395426300154,
            0.03800030952341937,
            0.09899358614986419,
            0.1457268513441601,
            -0.031917058372880135,
            -0.07452927229179997,
            -0.1737909597542261,
            -0.10554188752152686,
            -0.08723390571263169,
            -0.05365944366862806,
            0.03724170042414703,
            0.17704107873119768,
            -0.09080720393760046,
            -0.11258145415409117,
            -0.0006268806865515837,
            -0.0769025577454099,
            -0.024917408229133756,
            0.07985105267609947,
            0.028862064464902817,
            0.05272294852895815,
            -0.06454499115778536,
            -0.11307729802702732,
            -0.13857985024962835,
            0.11705298182607461,
            0.08564857744804114,
            -0.16813388067642732,
            0.05638413714788593,
            -0.06715771338102779,
            0.05912613883524751,
            0.04876285025113839,
            0.09056249407256345,
            0.27021547959374487,
            -0.1547953131565832,
            0.17404160737601482,
            0.09532224588776864,
            -0.056921653549689276,
            0.15151209456516934,
            0.048742615470959295,
            -0.14215462483914623,
            -0.1101116577302242,
            -0.18033825433331824,
            -0.11988319625948239,
            0.14046476432924004,
            0.14250264600770068,
            0.20215421308337708,
            0.11525400316948058,
            -0.18214574926703034
          ],
          [
            -0.05941348236426115,
            -0.10177876868296126,
            -0.03174868760279808,
            -0.031246149530942367,
            0.14635338931553415,
            0.16716004584102814,
            0.11921026077177549,
            0.2511370742497684,
            -0.005380370572710561,
            0.13318204835519365,
            0.07670496031978909,
            -0.09650613370703495,
            0.12467396437010753,
            -0.04733227022805528,
            0.04112796603476248,
            -0.09258853791350147,
            0.16020282158045035,
            -0.05588982828011094,
            -0.022830496733354123,
            0.16147007364243132,
            0.12210575127582524,
            0.0517908930365926,
            0.3203904158652843,
            0.002580841412684652,
            0.16229750290628328,
            -0.025370825933053707,
            0.0701371046862933,
            0.00873240576233338,
            -0.00048534776184758194,
            -0.13730147069096532,
            -0.010986006126410555,
            0.04668392137223431,
            -0.06858707147266507,
            0.0640104003532637,
            -0.11690614382933433,
            0.029049429323829198,
            -0.03261548038443796,
            0.03598739144823048,
            -0.04840540304475442,
            0.0800229518442488,
            0.1424292710144436,
            0.050766653453234147,
            0.1403675136358727,
            0.13427289905773976,
            0.08896290558549198,
            -0.04887773487245271,
            -0.0527062478953083,
            0.11139762952825698,
            0.015893868099693034,
            -0.16449515192773115,
            -0.023905489920163024,
            0.08928845564443406,
            0.004553573320470445,
            0.13621594901748668,
            -0.06868533141104993,
            0.09164092170219744,
            -0.04405975724364554,
            -0.005415637178204113,
            0.12557218145317214,
            -0.06475721101900829,
            0.047201598999855564,
            0.12898534116326812,
            -0.06646527047173924,
            0.06722676001631826
          ],
          [
            0.16997566234515502,
            0.05937503660290828,
            -0.16878695386593007,
            0.22963926956540953,
            0.2330609129500862,
            -0.0063621437054793934,
            -0.01373216958381307,
            0.01847454671613815,
            -0.006423498046302853,
            0.2056361823711294,
            0.0508288913213463,
            -0.006055081436195675,
            -0.20305356979750908,
            -0.036028243296278205,
            0.29038654418878257,
            -0.09790523629038396,
            0.1548568862929886,
            0.08549917883286555,
            -0.10948450810622218,
            0.17043158011274975,
            -0.10884868303400044,
            -0.06575554048791304,
            0.03411760569753865,
            -0.025900870390729958,
            0.10271081365228983,
            -0.1522141054156958,
            0.08323692400103444,
            0.12686285601546338,
            -0.1407989416970551,
            0.03867796743898837,
            0.15205671068908022,
            -0.18235358321074763,
            -0.17962637866168304,
            0.014045471470695469,
            -0.003559736086730876,
            -0.14291528072451506,
            -0.014932260900315726,
            -0.0764480484265702,
            0.06301831703885899,
            0.020174773523360563,
            -0.19452343086941093,
            -0.25120255178551715,
            0.19900523487087102,
            -0.09144005366877203,
            0.1494339371972456,
            -0.1997845218385856,
            0.12703583773988614,
            -0.1146212252490396,
            0.07285353996069217,
            0.05981986363987747,
            -0.141769650206311,
            0.19683601507419002,
            0.08832742000617869,
            0.013256399168574129,
            -0.04298412928289826,
            0.23393894922571337,
            0.03654566721723867,
            -0.13881203524708233,
            0.026221740132407675,
            0.14612021814461185,
            -0.1083482202628619,
            -0.07434185072330952,
            -0.11992460955524341,
            0.003483509174019168
          ],
          [
            -0.032421037421815437,
            0.13393363978618994,
            0.1002593040298805,
            0.03447032377112699,
            0.14206713905355434,
            0.10907373572484093,
            -0.01838349375195511,
            -0.19332476211373556,
            0.025801580949085412,
            -0.13845215876760408,
            -0.1387710370014961,
            0.07315338422304304,
            0.06619997292956228,
            -0.09170871867955523,
            -0.08738110087850333,
            0.08816123816027333,
            -0.023708509464947715,
            -0.18271424598949434,
            -0.10316631324775775,
            -0.06541244338113854,
            0.10511100387647393,
            0.22983043859387386,
            0.09619686093406254,
            0.08829065938538809,
            -0.019903952283504344,
            -0.12239673965143372,
            0.058790484722970195,
            -0.176655176757312,
            0.18747551076347496,
            0.22710500649953802,
            -0.014132493374867798,
            0.030855929826048744,
            0.030119828412330154,
            0.04825593831182484,
            -0.1546845737769337,
            0.0836760833581552,
            -0.13744096728323937,
            0.009442991788394802,
            0.010528593102756133,
            0.016196210971399026,
            0.10865776796328015,
            -0.041477460533020455,
            0.09963364277420395,
            -0.051554165774949916,
            0.13884510364944438,
            0.24385425860568047,
            0.053351707655312205,
            0.19355103488768013,
            0.2768066339593624,
            -0.1759308920812641,
            -0.07789917682296192,
            -0.032736868517333324,
            0.2478805052657861,
            0.06756331641225022,
            -0.0038609138394746032,
            0.07118117699198934,
            0.029377921959511378,
            -0.03285057353830755,
            0.11383960487270002,
            -0.041485749382885254,
            -0.10922777366200866,
            0.23996310613067473,
            0.22054717146288932,
            -0.011546210264768085
          ],
          [
            0.05542043308201335,
            0.1289547571370031,
            0.17204503197993096,
            -0.18763925480852128,
            0.2199571704214988,
            0.011147218672035292,
            0.11575827745139852,
            0.12652241143410578,
            -0.12241416851504208,
            -0.1868011757775323,
            0.017249837814608437,
            0.2480726135323647,
            0.23299520046470157,
            0.0932502023826461,
            0.0678531689788855,
            -0.05982406683727177,
            0.007271048602265428,
            -0.0832022658714674,
            0.03969574398692967,
            0.03534357936044522,
            0.0368430551207043,
            -0.0489102592814881,
            0.19875457134823002,
            -0.04909056483486001,
            0.06557309401255004,
            0.1014495814933756,
            0.045292281757099956,
            0.22858627456185282,
            0.21890852149863335,
            -0.02388095074882143,
            -0.1488007978132129,
            -0.05303681713992438,
            0.06706388507037679,
            -0.012957023586318539,
            -0.14428864797166144,
            0.03217610951210786,
            -0.09079868459644551,
            0.02110115587525084,
            0.04848269476988116,
            0.10054383885165627,
            0.13096431775190087,
            0.01818168448579158,
            -0.04429556423148833,
            0.08122988357233046,
            -0.14041941211044,
            0.13687910386706661,
            -0.10289439845613439,
            -0.036750355837383654,
            0.3031028587315136,
            -0.060375003298102754,
            0.08748978392209142,
            0.15055915317771007,
            0.2739689941616033,
            0.15405014834279876,
            0.31969947098222873,
            0.12512691912785084,
            0.22585927788285545,
            -0.0033754219976054553,
            0.09164182905594125,
            -0.09868099153380805,
            0.23253033243001894,
            0.15288046094164354,
            0.11196029235303828,
            -0.1679691157501796
          ],
          [
            -0.22556960876322993,
            0.013452518473646998,
            0.27658096366499463,
            -0.08025839539195422,
            -0.021871894242897007,
            -0.22792808605076129,
            -0.032315408049186145,
            -0.09977564743752251,
            0.056045444489425396,
            -0.17371348285556956,
            -0.0768831370519913,
            0.00171943264161981,
            0.18450023156399398,
            -0.11863583488488365,
            -0.14076491034729938,
            -0.047837712150776014,
            0.025499676490996413,
            -0.13719126761983905,
            0.05823760444627143,
            -0.0007625018556137585,
            0.22812591707211338,
            0.20358705993185555,
            0.08724440813144314,
            0.07228363955836459,
            0.08496700834128826,
            0.2020421484112369,
            -0.014167042328926233,
            0.03506005307206184,
            0.16319714530628104,
            0.2771785970140678,
            -0.13865058609669287,
            0.008648073882841579,
            0.1519168724297146,
            -0.03553356222211041,
            0.08245067151170567,
            -0.10851560622790467,
            -0.03132724557998567,
            0.22866311956242105,
            -0.06677712714983287,
            0.0055171718723739565,
            0.16035203022061773,
            0.00733916316501575,
            0.028727280012938904,
            -0.19273970664575837,
            -0.04058701316524099,
            -0.06514404013830961,
            -0.004647931060800316,
            0.028267569478961967,
            0.06018058978927078,
            -0.08239866682322504,
            0.12963342884849566,
            0.11231053812459725,
            -0.056391495915731164,
            -0.06760104774335457,
            0.02094725936307777,
            -0.24595378461668443,
            0.18047391088290066,
            -0.14912658984116836,
            -0.02138645162411193,
            -0.19384162815463404,
            0.12456010504067386,
            0.08004390615513249,
            0.227284164741658,
            0.10638197874792113
          ],
          [
            0.1405412898749491,
            -0.1722084760885588,
            0.017104299648717278,
            0.18460119820161747,
            -0.043117530036573364,
            0.06384869674148146,
            -0.08031743579597006,
            0.16605333322839935,
            -0.08814119555199049,
            0.02125830331463894,
            0.22497845963313817,
            -0.05575244495159616,
            -0.031656095820931984,
            -0.21874439977303056,
            0.0905723900495124,
            -0.06160958000781592,
            0.06570625948419363,
            0.16296539332280546,
            0.11031137717527091,
            0.19212831389769872,
            -0.13177164442082703,
            0.12043654162645585,
            0.19240805727564483,
            0.1402245806104193,
            -0.08151168933196212,
            0.010931460772191776,
            0.011836236791602617,
            0.1355977963899058,
            -0.0857984809919058,
            0.04549221098640375,
            0.20680847950198997,
            -0.017141378006916026,
            -0.004646234588541759,
            0.08146779310451213,
            -0.11193673015026621,
            -0.06744667687961042,
            0.1231115498269566,
            -0.014543034157818723,
            0.23266090431003222,
            0.1552066824794431,
            -0.07789809463176052,
            0.09230772631017066,
            0.18541132142905364,
            0.10897731030119104,
            0.21412664579583413,
            -0.05034935527485904,
            0.12004991717121925,
            -0.15688437224106638,
            -0.13891094490069933,
            -0.02459833414147729,
            -0.16461522057989111,
            0.0261566888935974,
            0.03701666147299016,
            0.06495100477382384,
            -0.14081036344721753,
            -0.04288007235286833,
            -0.22316055094949439,
            0.01913215685472539,
            -0.15712488427868912,
            0.024467913600007985,
            0.015259500536091684,
            0.06742264488493496,
            -0.19067902629447864,
            -0.026198001086280058
          ],
          [
            -0.13724908648510117,
            0.03361320067904238,
            -0.08036374003639833,
            -0.0948524005261177,
            0.02567609784866598,
            -0.040542496164316384,
            -0.03309436733285065,
            0.19425972615917209,
            -0.0753375454659117,
            -0.0701773739023912,
            0.15916485503800462,
            0.17766312758646513,
            0.16240854058255713,
            -0.06766564119290987,
            0.10741809732185163,
            -0.08119568494594175,
            -0.1295298505085514,
            0.10836814747886121,
            -0.12394808952922114,
            -0.021404494509821816,
            -0.0984801654124226,
            0.16645410066766708,
            -0.038251760391307406,
            -0.08359088246371028,
            -0.10834766595690543,
            0.12816202235543547,
            0.09346995053335262,
            0.02738371292935202,
            0.19715269556401663,
            -0.141941839209161,
            -0.10621951965478216,
            -0.10034213490425074,
            0.12870084835280457,
            -0.04800057019058311,
            -0.0483492275490525,
            -0.1233379619615689,
            -0.07496192853078527,
            0.09649364815442409,
            -0.12414847026055406,
            0.16305704229597082,
            -0.00018474733274642462,
            0.1856787226813524,
            -0.11941602853398592,
            0.2140934184165219,
            -0.10159394443342296,
            -0.09114191782741939,
            -0.07177457828705743,
            0.20708156601023098,
            -0.06459592593891086,
            -0.12614354796344962,
            0.11906865159149334,
            0.015256660183965456,
            0.03790291804126668,
            0.021693968723482185,
            0.14894997380450442,
            -0.013871089985653397,
            0.03406132442881513,
            0.1304899036731595,
            -0.06558174565211339,
            -0.030332241977708688,
            -0.03419111854642807,
            0.06549107692935315,
            0.2684641268291727,
            0.06110139943597635
          ],
          [
            0.1740509373352629,
            -0.032143665087036435,
            -0.10121360049251239,
            0.06589993257663068,
            0.2028001300871348,
            -0.08018351957698447,
            0.08707659093702132,
            0.21049710833090124,
            0.20132129840064308,
            0.03081998739179971,
            -0.032705652852883384,
            -0.07295396426323235,
            0.06347797943170001,
            -0.21419501707641211,
            0.16300655303969203,
            -0.038879414671382354,
            0.19329533775613672,
            0.030656015699727444,
            0.01778741740881109,
            0.040560771541211314,
            -0.08667979042123101,
            -0.002823702085012588,
            0.15033285299258442,
            0.05551945428050916,
            -0.12417220617407354,
            -0.05476839192925452,
            0.06100446720047756,
            0.1131253935316468,
            0.06158219237858625,
            -0.200952932208383,
            0.05988285423734541,
            0.09842047660911235,
            0.059218040689489874,
            -0.08662027870388125,
            -0.12307218602725309,
            -0.08617036795527554,
            0.20179874315991825,
            -0.1743383866118705,
            0.10617751575946141,
            0.15147619223867842,
            -0.030208839315409384,
            -0.14040162481955035,
            0.2085176089062888,
            -0.05441688302820003,
            0.1664436518812058,
            0.03696327118656738,
            -0.10882462016050715,
            -0.1262540278583495,
            -0.028055972132166318,
            -0.01628572907527271,
            0.024585649841162363,
            0.17968376659032287,
            0.1315794449869481,
            -0.1941298593529154,
            0.12866919039950983,
            0.1956149099895474,
            -0.07394732969440262,
            0.13315730686273436,
            -0.050903182038903275,
            0.1714064489714798,
            0.12745666039032746,
            -0.10979156899998443,
            0.09932726740672503,
            -0.04267386975417892
          ],
          [
            0.127623681972571,
            -0.08055080297855628,
            0.06143776456386216,
            0.17483827449485134,
            0.20615135400214293,
            -0.060987495594986646,
            0.01569631962429313,
            0.18330486062879361,
            0.09090419894754584,
            0.11339124243583526,
            0.24948675406037446,
            -0.10440809387819346,
            0.06691789459096656,
            0.09213376913914324,
            0.028892892811465135,
            -0.09907963459250721,
            0.1401788571459312,
            -0.03179581423108057,
            0.07770775926397255,
            -0.06470404704704708,
            -0.22011613365833346,
            -0.056083558284264305,
            0.024428731501831134,
            -0.06191444381164184,
            0.06495980355293333,
            -0.04051333167622054,
            0.13367157784014505,
            0.15257670737267473,
            0.06637132289917562,
            0.03453955209350808,
            0.24939044513320907,
            -0.01786202862162147,
            -0.017508946493605043,
            0.05253202090960903,
            -0.07358209049872878,
            0.09076080597515378,
            -0.03663341087795309,
            0.06034712193097538,
            0.049128909993985836,
            0.04448241739085374,
            -0.1106497996022688,
            -0.06562925109301741,
            -0.0775753350393917,
            0.09535049585861628,
            0.13361098728883836,
            -0.011728740543306358,
            0.009313417816641188,
            -0.20322518428187697,
            -0.24581281001637464,
            -0.01843960307439638,
            -0.19891666961588125,
            -0.02958323834709877,
            0.059948015851787446,
            -0.17408787929154307,
            -0.19331247639971227,
            0.1353648340334561,
            -0.127075402468459,
            -0.11695012139417142,
            0.13615809951629432,
            0.13001748755729867,
            -0.10238900858028935,
            -0.1693900960367441,
            0.06919988229062392,
            0.2608789706933155
          ],
          [
            -0.1671625333752433,
            0.11826821738927375,
            0.005105065617063712,
            0.03471179938287448,
            -0.2727486389788915,
            0.1045723721132848,
            -0.03441327182879264,
            -0.14557586984020152,
            0.07611559135839718,
            -0.09055857681117882,
            0.028772758339086962,
            0.022987567793825475,
            0.0771312391888918,
            0.09128675411255494,
            0.024553716087011453,
            0.0020672981939725494,
            -0.12646468633609684,
            -0.03624013357968331,
            0.22632063047859743,
            0.11396465165495911,
            0.15719637069684114,
            0.125189262218015,
            -0.2313157161603067,
            -0.0593005299136873,
            -0.0853773881120953,
            0.05292852427385584,
            -0.1752059217402689,
            -0.18495801380478263,
            0.11918625019197256,
            0.19303617737982123,
            -0.14463655367502729,
            -0.04985155227601498,
            0.12316158215435849,
            0.04151603054465002,
            -0.023127558071333338,
            0.1080415318944127,
            -0.05550803908872932,
            0.17817673414001708,
            -0.01799461605304076,
            -0.22030043497306218,
            0.07845491074435955,
            0.009769848186452558,
            -0.24136030533620728,
            -0.10941081929295542,
            -0.15134093764938902,
            0.07069948628861163,
            -0.04095299286076497,
            0.014947270002538508,
            0.3498761090810609,
            -0.07231482236442893,
            0.399279642353741,
            0.004123482795335037,
            0.13111208530908086,
            -0.06429645605204089,
            0.013969397121155889,
            -0.05480040360512247,
            -0.015966026754807384,
            -0.06376165494372818,
            -0.2582134040287139,
            -0.306252170008166,
            0.134391013748875,
            0.17536264864146428,
            0.3683011366045675,
            -0.03252261908578507
          ],
          [
            -0.2159583266755166,
            0.11334243706184131,
            -0.011364172795206543,
            0.057847891012595146,
            0.07245083196380443,
            -0.01979417691226214,
            0.0163429876680862,
            -0.2161232393128379,
            -0.08262936761920209,
            -0.14798555815711284,
            -0.08376272268728494,
            0.2025625185550691,
            -0.08807743109140491,
            -0.04344975535743234,
            -0.3323060075796967,
            0.2542790097530667,
            0.08146854221657679,
            -0.05233873013323099,
            0.05624728010134937,
            0.02808770591987864,
            0.14679306066258477,
            0.08764900194434996,
            -0.39637016860856744,
            0.08332930716770631,
            0.018945111263007172,
            0.16593745171360683,
            -0.005000827819773672,
            -0.08215083982027817,
            0.05350845824669256,
            -0.010368976614301221,
            0.013352407843856714,
            0.1772379694037115,
            0.13084851245577991,
            -0.06641936171024165,
            -0.12348577895157206,
            -0.08416433075265993,
            -0.10679414042559589,
            0.18921235916535334,
            -0.27537153453835045,
            -0.2246980491809306,
            -0.1121784318861751,
            -0.013118045553980513,
            0.004424413030687634,
            -0.16931425726124755,
            -0.03858025323336794,
            -0.028172557659823228,
            0.01515828873232727,
            0.003440799405939471,
            0.3071060627490212,
            0.09120747825335657,
            -0.08175346333424759,
            -0.279058741296265,
            0.09003608752789029,
            0.21582682762101743,
            0.2548520075128379,
            -0.0482716706924857,
            0.16193926416492826,
            0.1096427967869126,
            0.0068124283410355025,
            -0.10984936285433046,
            0.2321322073450154,
            0.17672208917893115,
            0.3080506504463505,
            -0.06397825383090555
          ],
          [
            0.13629902140203223,
            -0.1339816673626867,
            -0.04802928561403922,
